<?xml version="1.0"?>
<opencv_storage>
<cascade>
  <stageType>BOOST</stageType>
  <featureType>HAAR</featureType>
  <height>24</height>
  <width>24</width>
  <stageParams>
    <boostType>GAB</boostType>
    <minHitRate>9.9500000476837158e-01</minHitRate>
    <maxFalseAlarm>5.0000000000000000e-01</maxFalseAlarm>
    <weightTrimRate>9.4999998807907104e-01</weightTrimRate>
    <maxDepth>1</maxDepth>
    <maxWeakCount>100</maxWeakCount></stageParams>
  <featureParams>
    <maxCatCount>0</maxCatCount>
    <featSize>1</featSize>
    <mode>BASIC</mode></featureParams>
  <stageNum>19</stageNum>
  <stages>
    <!-- stage 0 -->
    <_>
      <maxWeakCount>4</maxWeakCount>
      <stageThreshold>-1.9280087947845459e+00</stageThreshold>
      <weakClassifiers>
        <_>
          <internalNodes>
            0 -1 111 -2.0975153893232346e-02</internalNodes>
          <leafValues>
            6.1240309476852417e-01 -9.2687749862670898e-01</leafValues></_>
        <_>
          <internalNodes>
            0 -1 77 1.8236445263028145e-02</internalNodes>
          <leafValues>
            -8.4037810564041138e-01 5.6047165393829346e-01</leafValues></_>
        <_>
          <internalNodes>
            0 -1 72 -4.2137554846704006e-03</internalNodes>
          <leafValues>
            3.6106574535369873e-01 -8.2358121871948242e-01</leafValues></_>
        <_>
          <internalNodes>
            0 -1 73 4.1381409391760826e-03</internalNodes>
          <leafValues>
            -5.0196015834808350e-01 6.6282808780670166e-01</leafValues></_></weakClassifiers></_>
    <!-- stage 1 -->
    <_>
      <maxWeakCount>7</maxWeakCount>
      <stageThreshold>-1.6637312173843384e+00</stageThreshold>
      <weakClassifiers>
        <_>
          <internalNodes>
            0 -1 25 3.3353373408317566e-02</internalNodes>
          <leafValues>
            -9.0615832805633545e-01 5.7627117633819580e-01</leafValues></_>
        <_>
          <internalNodes>
            0 -1 121 -1.3071298599243164e-02</internalNodes>
          <leafValues>
            4.7626653313636780e-01 -7.4894714355468750e-01</leafValues></_>
        <_>
          <internalNodes>
            0 -1 92 1.0053039659396745e-05</internalNodes>
          <leafValues>
            -8.0830556154251099e-01 1.9703185558319092e-01</leafValues></_>
        <_>
          <internalNodes>
            0 -1 149 1.9720260752364993e-04</internalNodes>
          <leafValues>
            2.4895215034484863e-01 -7.5134426355361938e-01</leafValues></_>
        <_>
          <internalNodes>
            0 -1 44 6.9311201572418213e-02</internalNodes>
          <leafValues>
            -3.2518863677978516e-01 7.1282428503036499e-01</leafValues></_>
        <_>
          <internalNodes>
            0 -1 22 -2.3206596961244941e-04</internalNodes>
          <leafValues>
            -8.8729840517044067e-01 2.8308114409446716e-01</leafValues></_>
        <_>
          <internalNodes>
            0 -1 39 8.0710174515843391e-03</internalNodes>
          <leafValues>
            -3.7984657287597656e-01 5.9283518791198730e-01</leafValues></_></weakClassifiers></_>
    <!-- stage 2 -->
    <_>
      <maxWeakCount>6</maxWeakCount>
      <stageThreshold>-1.9658346176147461e+00</stageThreshold>
      <weakClassifiers>
        <_>
          <internalNodes>
            0 -1 30 4.1782110929489136e-02</internalNodes>
          <leafValues>
            -8.7683284282684326e-01 3.2203391194343567e-01</leafValues></_>
        <_>
          <internalNodes>
            0 -1 90 -2.8070004656910896e-02</internalNodes>
          <leafValues>
            4.1824287176132202e-01 -6.8818855285644531e-01</leafValues></_>
        <_>
          <internalNodes>
            0 -1 112 1.0740773286670446e-03</internalNodes>
          <leafValues>
            -5.2996855974197388e-01 4.8538315296173096e-01</leafValues></_>
        <_>
          <internalNodes>
            0 -1 60 8.1280135782435536e-04</internalNodes>
          <leafValues>
            2.0174579322338104e-01 -9.2505830526351929e-01</leafValues></_>
        <_>
          <internalNodes>
            0 -1 129 2.6814858429133892e-03</internalNodes>
          <leafValues>
            -4.6612697839736938e-01 4.3439209461212158e-01</leafValues></_>
        <_>
          <internalNodes>
            0 -1 96 1.4997697435319424e-03</internalNodes>
          <leafValues>
            -5.0698256492614746e-01 4.3427115678787231e-01</leafValues></_></weakClassifiers></_>
    <!-- stage 3 -->
    <_>
      <maxWeakCount>5</maxWeakCount>
      <stageThreshold>-1.4873721599578857e+00</stageThreshold>
      <weakClassifiers>
        <_>
          <internalNodes>
            0 -1 6 4.5436757802963257e-01</internalNodes>
          <leafValues>
            -8.6692017316818237e-01 5.9550559520721436e-01</leafValues></_>
        <_>
          <internalNodes>
            0 -1 32 -2.2395167499780655e-02</internalNodes>
          <leafValues>
            6.0573083162307739e-01 -6.4504784345626831e-01</leafValues></_>
        <_>
          <internalNodes>
            0 -1 152 -2.2917988826520741e-04</internalNodes>
          <leafValues>
            -8.5158294439315796e-01 2.0824588835239410e-01</leafValues></_>
        <_>
          <internalNodes>
            0 -1 152 1.7627258785068989e-04</internalNodes>
          <leafValues>
            2.9437339305877686e-01 -6.9576424360275269e-01</leafValues></_>
        <_>
          <internalNodes>
            0 -1 88 -3.4741898998618126e-03</internalNodes>
          <leafValues>
            5.9291905164718628e-01 -4.7802340984344482e-01</leafValues></_></weakClassifiers></_>
    <!-- stage 4 -->
    <_>
      <maxWeakCount>7</maxWeakCount>
      <stageThreshold>-2.0523397922515869e+00</stageThreshold>
      <weakClassifiers>
        <_>
          <internalNodes>
            0 -1 21 4.3257981538772583e-02</internalNodes>
          <leafValues>
            -8.3783781528472900e-01 5.8823531866073608e-01</leafValues></_>
        <_>
          <internalNodes>
            0 -1 55 2.7023397386074066e-02</internalNodes>
          <leafValues>
            -7.7182447910308838e-01 3.0932790040969849e-01</leafValues></_>
        <_>
          <internalNodes>
            0 -1 122 -2.5581382215023041e-02</internalNodes>
          <leafValues>
            4.9805155396461487e-01 -4.4441565871238708e-01</leafValues></_>
        <_>
          <internalNodes>
            0 -1 151 -1.9921486091334373e-04</internalNodes>
          <leafValues>
            -6.2720268964767456e-01 2.9917860031127930e-01</leafValues></_>
        <_>
          <internalNodes>
            0 -1 80 -2.1250727586448193e-03</internalNodes>
          <leafValues>
            4.5596247911453247e-01 -4.3339326977729797e-01</leafValues></_>
        <_>
          <internalNodes>
            0 -1 97 -7.8188802581280470e-04</internalNodes>
          <leafValues>
            3.2242485880851746e-01 -5.4394859075546265e-01</leafValues></_>
        <_>
          <internalNodes>
            0 -1 28 -4.8002675175666809e-02</internalNodes>
          <leafValues>
            6.7990148067474365e-01 -2.9530295729637146e-01</leafValues></_></weakClassifiers></_>
    <!-- stage 5 -->
    <_>
      <maxWeakCount>8</maxWeakCount>
      <stageThreshold>-2.3351244926452637e+00</stageThreshold>
      <weakClassifiers>
        <_>
          <internalNodes>
            0 -1 6 5.8477485179901123e-01</internalNodes>
          <leafValues>
            -8.4145176410675049e-01 2.3404255509376526e-01</leafValues></_>
        <_>
          <internalNodes>
            0 -1 19 1.9861325621604919e-02</internalNodes>
          <leafValues>
            -5.4568511247634888e-01 4.8597937822341919e-01</leafValues></_>
        <_>
          <internalNodes>
            0 -1 52 2.8598997741937637e-03</internalNodes>
          <leafValues>
            -6.1572462320327759e-01 3.3060458302497864e-01</leafValues></_>
        <_>
          <internalNodes>
            0 -1 40 3.3986417111009359e-04</internalNodes>
          <leafValues>
            2.6058009266853333e-01 -6.7925101518630981e-01</leafValues></_>
        <_>
          <internalNodes>
            0 -1 136 -1.7040472012013197e-03</internalNodes>
          <leafValues>
            4.5003533363342285e-01 -4.4421899318695068e-01</leafValues></_>
        <_>
          <internalNodes>
            0 -1 15 -4.9727867008186877e-05</internalNodes>
          <leafValues>
            -7.0395147800445557e-01 2.7146488428115845e-01</leafValues></_>
        <_>
          <internalNodes>
            0 -1 142 -9.8034890834242105e-04</internalNodes>
          <leafValues>
            -8.7807744741439819e-01 1.8041931092739105e-01</leafValues></_>
        <_>
          <internalNodes>
            0 -1 127 -1.0053039659396745e-05</internalNodes>
          <leafValues>
            2.5656089186668396e-01 -6.0050833225250244e-01</leafValues></_></weakClassifiers></_>
    <!-- stage 6 -->
    <_>
      <maxWeakCount>8</maxWeakCount>
      <stageThreshold>-1.8967003822326660e+00</stageThreshold>
      <weakClassifiers>
        <_>
          <internalNodes>
            0 -1 4 6.6263258457183838e-01</internalNodes>
          <leafValues>
            -8.2136279344558716e-01 6.0000002384185791e-01</leafValues></_>
        <_>
          <internalNodes>
            0 -1 63 -3.5034544765949249e-02</internalNodes>
          <leafValues>
            3.9540657401084900e-01 -5.7225269079208374e-01</leafValues></_>
        <_>
          <internalNodes>
            0 -1 62 5.0601334078237414e-04</internalNodes>
          <leafValues>
            -5.4644101858139038e-01 3.2329070568084717e-01</leafValues></_>
        <_>
          <internalNodes>
            0 -1 150 -4.3795339297503233e-04</internalNodes>
          <leafValues>
            -8.8471144437789917e-01 2.1173082292079926e-01</leafValues></_>
        <_>
          <internalNodes>
            0 -1 87 1.1150866339448839e-04</internalNodes>
          <leafValues>
            -5.1350694894790649e-01 2.9447409510612488e-01</leafValues></_>
        <_>
          <internalNodes>
            0 -1 95 4.0000901208259165e-05</internalNodes>
          <leafValues>
            -6.4787673950195313e-01 2.7404427528381348e-01</leafValues></_>
        <_>
          <internalNodes>
            0 -1 106 1.1143758893013000e-03</internalNodes>
          <leafValues>
            1.5318524837493896e-01 -9.2267149686813354e-01</leafValues></_>
        <_>
          <internalNodes>
            0 -1 148 2.5669898604974151e-04</internalNodes>
          <leafValues>
            1.6062563657760620e-01 -7.9069852828979492e-01</leafValues></_></weakClassifiers></_>
    <!-- stage 7 -->
    <_>
      <maxWeakCount>8</maxWeakCount>
      <stageThreshold>-1.8200086355209351e+00</stageThreshold>
      <weakClassifiers>
        <_>
          <internalNodes>
            0 -1 9 5.5425658822059631e-02</internalNodes>
          <leafValues>
            -8.2122904062271118e-01 3.4328359365463257e-01</leafValues></_>
        <_>
          <internalNodes>
            0 -1 98 3.1088916584849358e-03</internalNodes>
          <leafValues>
            -6.7274749279022217e-01 1.8951195478439331e-01</leafValues></_>
        <_>
          <internalNodes>
            0 -1 56 2.5500557385385036e-03</internalNodes>
          <leafValues>
            -7.0034432411193848e-01 1.7592123150825500e-01</leafValues></_>
        <_>
          <internalNodes>
            0 -1 48 9.3996175564825535e-04</internalNodes>
          <leafValues>
            -4.9304416775703430e-01 3.1756255030632019e-01</leafValues></_>
        <_>
          <internalNodes>
            0 -1 153 -2.4826917797327042e-04</internalNodes>
          <leafValues>
            -7.0177960395812988e-01 2.3373152315616608e-01</leafValues></_>
        <_>
          <internalNodes>
            0 -1 78 4.3067377991974354e-03</internalNodes>
          <leafValues>
            2.1140278875827789e-01 -6.8913960456848145e-01</leafValues></_>
        <_>
          <internalNodes>
            0 -1 132 -5.6663551367819309e-04</internalNodes>
          <leafValues>
            2.6679670810699463e-01 -5.6187736988067627e-01</leafValues></_>
        <_>
          <internalNodes>
            0 -1 5 5.5974966380745173e-04</internalNodes>
          <leafValues>
            1.7970219254493713e-01 -7.5656592845916748e-01</leafValues></_></weakClassifiers></_>
    <!-- stage 8 -->
    <_>
      <maxWeakCount>9</maxWeakCount>
      <stageThreshold>-2.0690858364105225e+00</stageThreshold>
      <weakClassifiers>
        <_>
          <internalNodes>
            0 -1 45 2.0721126347780228e-02</internalNodes>
          <leafValues>
            -8.1852197647094727e-01 2.2222222387790680e-01</leafValues></_>
        <_>
          <internalNodes>
            0 -1 31 1.3326595537364483e-02</internalNodes>
          <leafValues>
            -7.2342026233673096e-01 1.3697502017021179e-01</leafValues></_>
        <_>
          <internalNodes>
            0 -1 103 1.8950417870655656e-03</internalNodes>
          <leafValues>
            -4.9111810326576233e-01 4.1504222154617310e-01</leafValues></_>
        <_>
          <internalNodes>
            0 -1 110 -6.8589410511776805e-04</internalNodes>
          <leafValues>
            -6.9436103105545044e-01 1.8528258800506592e-01</leafValues></_>
        <_>
          <internalNodes>
            0 -1 67 5.8181271888315678e-03</internalNodes>
          <leafValues>
            -3.4267112612724304e-01 4.4408252835273743e-01</leafValues></_>
        <_>
          <internalNodes>
            0 -1 116 1.1673851404339075e-03</internalNodes>
          <leafValues>
            -3.1316632032394409e-01 4.6333530545234680e-01</leafValues></_>
        <_>
          <internalNodes>
            0 -1 46 2.7010746998712420e-04</internalNodes>
          <leafValues>
            2.2307854890823364e-01 -6.6017234325408936e-01</leafValues></_>
        <_>
          <internalNodes>
            0 -1 120 -3.4801186993718147e-03</internalNodes>
          <leafValues>
            -7.8416782617568970e-01 1.7681126296520233e-01</leafValues></_>
        <_>
          <internalNodes>
            0 -1 59 -2.8138444758951664e-03</internalNodes>
          <leafValues>
            -8.8919109106063843e-01 1.1231387406587601e-01</leafValues></_></weakClassifiers></_>
    <!-- stage 9 -->
    <_>
      <maxWeakCount>7</maxWeakCount>
      <stageThreshold>-1.9576542377471924e+00</stageThreshold>
      <weakClassifiers>
        <_>
          <internalNodes>
            0 -1 54 2.0654229447245598e-02</internalNodes>
          <leafValues>
            -8.0091321468353271e-01 3.9130434393882751e-01</leafValues></_>
        <_>
          <internalNodes>
            0 -1 114 4.8990501090884209e-04</internalNodes>
          <leafValues>
            -7.1746981143951416e-01 1.1467356234788895e-01</leafValues></_>
        <_>
          <internalNodes>
            0 -1 133 -1.0053039659396745e-05</internalNodes>
          <leafValues>
            2.6633837819099426e-01 -5.6753277778625488e-01</leafValues></_>
        <_>
          <internalNodes>
            0 -1 43 1.0705213993787766e-02</internalNodes>
          <leafValues>
            1.3003219664096832e-01 -9.2648607492446899e-01</leafValues></_>
        <_>
          <internalNodes>
            0 -1 18 1.3937417417764664e-02</internalNodes>
          <leafValues>
            1.7586597800254822e-01 -7.5618714094161987e-01</leafValues></_>
        <_>
          <internalNodes>
            0 -1 61 -4.4505117693915963e-04</internalNodes>
          <leafValues>
            3.3498138189315796e-01 -4.0834555029869080e-01</leafValues></_>
        <_>
          <internalNodes>
            0 -1 26 -3.6183251067996025e-03</internalNodes>
          <leafValues>
            -6.0316216945648193e-01 2.5055369734764099e-01</leafValues></_></weakClassifiers></_>
    <!-- stage 10 -->
    <_>
      <maxWeakCount>8</maxWeakCount>
      <stageThreshold>-1.7669532299041748e+00</stageThreshold>
      <weakClassifiers>
        <_>
          <internalNodes>
            0 -1 108 1.9696988165378571e-02</internalNodes>
          <leafValues>
            -8.0456620454788208e-01 4.7826087474822998e-01</leafValues></_>
        <_>
          <internalNodes>
            0 -1 23 1.8833514302968979e-02</internalNodes>
          <leafValues>
            -4.3701103329658508e-01 6.7744404077529907e-01</leafValues></_>
        <_>
          <internalNodes>
            0 -1 58 -1.2790689652319998e-04</internalNodes>
          <leafValues>
            3.3194044232368469e-01 -4.7107538580894470e-01</leafValues></_>
        <_>
          <internalNodes>
            0 -1 1 -1.1292335693724453e-04</internalNodes>
          <leafValues>
            -6.0687333345413208e-01 2.4612399935722351e-01</leafValues></_>
        <_>
          <internalNodes>
            0 -1 130 5.0007743993774056e-04</internalNodes>
          <leafValues>
            -4.8875203728675842e-01 3.0868726968765259e-01</leafValues></_>
        <_>
          <internalNodes>
            0 -1 11 7.4703777499962598e-05</internalNodes>
          <leafValues>
            2.1369308233261108e-01 -6.5532672405242920e-01</leafValues></_>
        <_>
          <internalNodes>
            0 -1 124 -1.5058778226375580e-02</internalNodes>
          <leafValues>
            4.4162037968635559e-01 -3.0859577655792236e-01</leafValues></_>
        <_>
          <internalNodes>
            0 -1 76 4.7572761774063110e-02</internalNodes>
          <leafValues>
            -4.4087952375411987e-01 3.5481062531471252e-01</leafValues></_></weakClassifiers></_>
    <!-- stage 11 -->
    <_>
      <maxWeakCount>12</maxWeakCount>
      <stageThreshold>-2.2554442882537842e+00</stageThreshold>
      <weakClassifiers>
        <_>
          <internalNodes>
            0 -1 35 9.8273828625679016e-02</internalNodes>
          <leafValues>
            -7.9510426521301270e-01 4.7368422150611877e-01</leafValues></_>
        <_>
          <internalNodes>
            0 -1 41 5.5667329579591751e-03</internalNodes>
          <leafValues>
            -6.8914109468460083e-01 1.1557204276323318e-01</leafValues></_>
        <_>
          <internalNodes>
            0 -1 85 3.3624999923631549e-04</internalNodes>
          <leafValues>
            -4.7186866402626038e-01 3.0753478407859802e-01</leafValues></_>
        <_>
          <internalNodes>
            0 -1 143 -5.5850243370514363e-05</internalNodes>
          <leafValues>
            -6.8879377841949463e-01 1.7967583239078522e-01</leafValues></_>
        <_>
          <internalNodes>
            0 -1 14 2.9400677885860205e-04</internalNodes>
          <leafValues>
            1.7984139919281006e-01 -7.2118479013442993e-01</leafValues></_>
        <_>
          <internalNodes>
            0 -1 86 4.7637484967708588e-03</internalNodes>
          <leafValues>
            -3.2388454675674438e-01 3.9569997787475586e-01</leafValues></_>
        <_>
          <internalNodes>
            0 -1 12 5.1794217142742127e-05</internalNodes>
          <leafValues>
            2.0906566083431244e-01 -5.9494686126708984e-01</leafValues></_>
        <_>
          <internalNodes>
            0 -1 131 2.4218214093707502e-05</internalNodes>
          <leafValues>
            -5.2192234992980957e-01 2.2258692979812622e-01</leafValues></_>
        <_>
          <internalNodes>
            0 -1 10 -1.7495580250397325e-03</internalNodes>
          <leafValues>
            3.5286331176757813e-01 -3.6942940950393677e-01</leafValues></_>
        <_>
          <internalNodes>
            0 -1 20 -2.0529329776763916e-02</internalNodes>
          <leafValues>
            7.2894376516342163e-01 -1.9700403511524200e-01</leafValues></_>
        <_>
          <internalNodes>
            0 -1 123 -1.0053039659396745e-05</internalNodes>
          <leafValues>
            3.0529847741127014e-01 -4.6181985735893250e-01</leafValues></_>
        <_>
          <internalNodes>
            0 -1 7 8.3673250628635287e-04</internalNodes>
          <leafValues>
            -5.1014405488967896e-01 2.6163762807846069e-01</leafValues></_></weakClassifiers></_>
    <!-- stage 12 -->
    <_>
      <maxWeakCount>10</maxWeakCount>
      <stageThreshold>-1.9366962909698486e+00</stageThreshold>
      <weakClassifiers>
        <_>
          <internalNodes>
            0 -1 53 5.6521631777286530e-02</internalNodes>
          <leafValues>
            -7.8597122430801392e-01 5.1724135875701904e-01</leafValues></_>
        <_>
          <internalNodes>
            0 -1 104 1.3429084792733192e-03</internalNodes>
          <leafValues>
            -7.1442461013793945e-01 5.6205492466688156e-02</leafValues></_>
        <_>
          <internalNodes>
            0 -1 135 -7.1268351748585701e-03</internalNodes>
          <leafValues>
            3.6237612366676331e-01 -3.6150255799293518e-01</leafValues></_>
        <_>
          <internalNodes>
            0 -1 3 -5.4825365077704191e-04</internalNodes>
          <leafValues>
            -8.1191867589950562e-01 1.4574070274829865e-01</leafValues></_>
        <_>
          <internalNodes>
            0 -1 3 6.2489119591191411e-04</internalNodes>
          <leafValues>
            1.8619060516357422e-01 -7.8818041086196899e-01</leafValues></_>
        <_>
          <internalNodes>
            0 -1 118 -5.7902012486010790e-04</internalNodes>
          <leafValues>
            2.1401517093181610e-01 -5.2539312839508057e-01</leafValues></_>
        <_>
          <internalNodes>
            0 -1 93 1.2602709233760834e-02</internalNodes>
          <leafValues>
            2.2616338729858398e-01 -5.6411582231521606e-01</leafValues></_>
        <_>
          <internalNodes>
            0 -1 71 2.0651626400649548e-03</internalNodes>
          <leafValues>
            1.6596315801143646e-01 -6.5453809499740601e-01</leafValues></_>
        <_>
          <internalNodes>
            0 -1 47 -1.1807659029727802e-04</internalNodes>
          <leafValues>
            -6.3481914997100830e-01 1.7990969121456146e-01</leafValues></_>
        <_>
          <internalNodes>
            0 -1 89 -1.2481691082939506e-03</internalNodes>
          <leafValues>
            4.1222736239433289e-01 -3.2062023878097534e-01</leafValues></_></weakClassifiers></_>
    <!-- stage 13 -->
    <_>
      <maxWeakCount>8</maxWeakCount>
      <stageThreshold>-1.8636528253555298e+00</stageThreshold>
      <weakClassifiers>
        <_>
          <internalNodes>
            0 -1 134 -1.9419942051172256e-02</internalNodes>
          <leafValues>
            4.5454546809196472e-01 -7.8880864381790161e-01</leafValues></_>
        <_>
          <internalNodes>
            0 -1 29 3.0094407498836517e-02</internalNodes>
          <leafValues>
            -4.8974531888961792e-01 3.2340455055236816e-01</leafValues></_>
        <_>
          <internalNodes>
            0 -1 57 3.2671498047420755e-05</internalNodes>
          <leafValues>
            -5.2025836706161499e-01 2.4521009624004364e-01</leafValues></_>
        <_>
          <internalNodes>
            0 -1 34 2.0770885050296783e-02</internalNodes>
          <leafValues>
            -3.1171163916587830e-01 3.8303354382514954e-01</leafValues></_>
        <_>
          <internalNodes>
            0 -1 144 -9.5445982879027724e-05</internalNodes>
          <leafValues>
            -6.2504929304122925e-01 2.0340153574943542e-01</leafValues></_>
        <_>
          <internalNodes>
            0 -1 140 3.1254967325367033e-04</internalNodes>
          <leafValues>
            -4.8430612683296204e-01 2.6551994681358337e-01</leafValues></_>
        <_>
          <internalNodes>
            0 -1 126 -2.0135801751166582e-03</internalNodes>
          <leafValues>
            -7.1380716562271118e-01 1.9210769236087799e-01</leafValues></_>
        <_>
          <internalNodes>
            0 -1 69 -3.4141240175813437e-03</internalNodes>
          <leafValues>
            3.0975696444511414e-01 -4.1415804624557495e-01</leafValues></_></weakClassifiers></_>
    <!-- stage 14 -->
    <_>
      <maxWeakCount>11</maxWeakCount>
      <stageThreshold>-2.0532424449920654e+00</stageThreshold>
      <weakClassifiers>
        <_>
          <internalNodes>
            0 -1 109 4.1853856295347214e-02</internalNodes>
          <leafValues>
            -7.8276479244232178e-01 4.8148149251937866e-01</leafValues></_>
        <_>
          <internalNodes>
            0 -1 100 -1.7544172704219818e-02</internalNodes>
          <leafValues>
            7.4317857623100281e-02 -6.5919804573059082e-01</leafValues></_>
        <_>
          <internalNodes>
            0 -1 75 -3.9809281588532031e-04</internalNodes>
          <leafValues>
            3.3091837167739868e-01 -3.8218471407890320e-01</leafValues></_>
        <_>
          <internalNodes>
            0 -1 64 3.8443775847554207e-03</internalNodes>
          <leafValues>
            1.2147888541221619e-01 -9.4857978820800781e-01</leafValues></_>
        <_>
          <internalNodes>
            0 -1 70 2.0633137319236994e-03</internalNodes>
          <leafValues>
            -2.8898867964744568e-01 3.8703572750091553e-01</leafValues></_>
        <_>
          <internalNodes>
            0 -1 49 6.9435877958312631e-04</internalNodes>
          <leafValues>
            -7.0135062932968140e-01 1.5796139836311340e-01</leafValues></_>
        <_>
          <internalNodes>
            0 -1 81 3.6421544849872589e-02</internalNodes>
          <leafValues>
            2.4804672598838806e-01 -7.2055888175964355e-01</leafValues></_>
        <_>
          <internalNodes>
            0 -1 113 1.2743260012939572e-03</internalNodes>
          <leafValues>
            -4.9690070748329163e-01 2.2708858549594879e-01</leafValues></_>
        <_>
          <internalNodes>
            0 -1 146 -1.4074606588110328e-04</internalNodes>
          <leafValues>
            -6.2270069122314453e-01 1.8300135433673859e-01</leafValues></_>
        <_>
          <internalNodes>
            0 -1 38 -2.4693585932254791e-02</internalNodes>
          <leafValues>
            5.4549127817153931e-01 -2.3131345212459564e-01</leafValues></_>
        <_>
          <internalNodes>
            0 -1 2 2.0681672322098166e-04</internalNodes>
          <leafValues>
            2.1294224262237549e-01 -5.8951699733734131e-01</leafValues></_></weakClassifiers></_>
    <!-- stage 15 -->
    <_>
      <maxWeakCount>9</maxWeakCount>
      <stageThreshold>-1.7073750495910645e+00</stageThreshold>
      <weakClassifiers>
        <_>
          <internalNodes>
            0 -1 125 -5.5254444479942322e-02</internalNodes>
          <leafValues>
            -1.4285714924335480e-01 -8.0571430921554565e-01</leafValues></_>
        <_>
          <internalNodes>
            0 -1 27 3.3950544893741608e-03</internalNodes>
          <leafValues>
            -6.3965332508087158e-01 8.3528704941272736e-02</leafValues></_>
        <_>
          <internalNodes>
            0 -1 42 4.1687637567520142e-03</internalNodes>
          <leafValues>
            -5.1428818702697754e-01 2.2291389107704163e-01</leafValues></_>
        <_>
          <internalNodes>
            0 -1 115 5.2416615653783083e-04</internalNodes>
          <leafValues>
            -3.3118739724159241e-01 3.4594464302062988e-01</leafValues></_>
        <_>
          <internalNodes>
            0 -1 0 -2.5580742658348754e-05</internalNodes>
          <leafValues>
            -4.8345619440078735e-01 2.5505450367927551e-01</leafValues></_>
        <_>
          <internalNodes>
            0 -1 74 -3.5218312405049801e-05</internalNodes>
          <leafValues>
            2.5567129254341125e-01 -4.3588492274284363e-01</leafValues></_>
        <_>
          <internalNodes>
            0 -1 33 -4.5163542381487787e-05</internalNodes>
          <leafValues>
            -4.8589333891868591e-01 2.5923338532447815e-01</leafValues></_>
        <_>
          <internalNodes>
            0 -1 66 -7.4685981962829828e-04</internalNodes>
          <leafValues>
            -7.5074797868728638e-01 1.4798995852470398e-01</leafValues></_>
        <_>
          <internalNodes>
            0 -1 138 -1.3033628929406404e-03</internalNodes>
          <leafValues>
            3.7110212445259094e-01 -3.1915235519409180e-01</leafValues></_></weakClassifiers></_>
    <!-- stage 16 -->
    <_>
      <maxWeakCount>11</maxWeakCount>
      <stageThreshold>-2.0074295997619629e+00</stageThreshold>
      <weakClassifiers>
        <_>
          <internalNodes>
            0 -1 16 -1.3612636923789978e-01</internalNodes>
          <leafValues>
            6.1538463830947876e-01 -7.8475338220596313e-01</leafValues></_>
        <_>
          <internalNodes>
            0 -1 107 2.2426128271035850e-04</internalNodes>
          <leafValues>
            -6.8095350265502930e-01 9.9845901131629944e-02</leafValues></_>
        <_>
          <internalNodes>
            0 -1 8 1.1923563480377197e-01</internalNodes>
          <leafValues>
            -3.8367542624473572e-01 2.9477918148040771e-01</leafValues></_>
        <_>
          <internalNodes>
            0 -1 101 -3.6716728936880827e-04</internalNodes>
          <leafValues>
            2.9900538921356201e-01 -3.4985804557800293e-01</leafValues></_>
        <_>
          <internalNodes>
            0 -1 94 -8.6644678958691657e-05</internalNodes>
          <leafValues>
            2.5299459695816040e-01 -5.5408096313476563e-01</leafValues></_>
        <_>
          <internalNodes>
            0 -1 147 -6.0436810599640012e-04</internalNodes>
          <leafValues>
            -7.0535385608673096e-01 1.6507709026336670e-01</leafValues></_>
        <_>
          <internalNodes>
            0 -1 139 4.0104688378050923e-04</internalNodes>
          <leafValues>
            -3.6451026797294617e-01 3.0157113075256348e-01</leafValues></_>
        <_>
          <internalNodes>
            0 -1 50 1.5828453004360199e-02</internalNodes>
          <leafValues>
            1.0166940093040466e-01 -1.</leafValues></_>
        <_>
          <internalNodes>
            0 -1 105 -9.2074542772024870e-04</internalNodes>
          <leafValues>
            5.0164264440536499e-01 -2.6481199264526367e-01</leafValues></_>
        <_>
          <internalNodes>
            0 -1 91 -5.4490272887051105e-03</internalNodes>
          <leafValues>
            -7.7523016929626465e-01 1.6690127551555634e-01</leafValues></_>
        <_>
          <internalNodes>
            0 -1 128 2.6419691494083963e-05</internalNodes>
          <leafValues>
            -5.1437270641326904e-01 1.8847827613353729e-01</leafValues></_></weakClassifiers></_>
    <!-- stage 17 -->
    <_>
      <maxWeakCount>8</maxWeakCount>
      <stageThreshold>-1.4392215013504028e+00</stageThreshold>
      <weakClassifiers>
        <_>
          <internalNodes>
            0 -1 37 5.7686310261487961e-02</internalNodes>
          <leafValues>
            -8.0897802114486694e-01 -1.2765957415103912e-01</leafValues></_>
        <_>
          <internalNodes>
            0 -1 117 -1.5166412340477109e-03</internalNodes>
          <leafValues>
            8.0938763916492462e-02 -6.1977058649063110e-01</leafValues></_>
        <_>
          <internalNodes>
            0 -1 24 2.8915990144014359e-02</internalNodes>
          <leafValues>
            -4.0148189663887024e-01 2.8264740109443665e-01</leafValues></_>
        <_>
          <internalNodes>
            0 -1 141 8.8939239503815770e-05</internalNodes>
          <leafValues>
            2.2279910743236542e-01 -5.0470113754272461e-01</leafValues></_>
        <_>
          <internalNodes>
            0 -1 79 1.0053039659396745e-05</internalNodes>
          <leafValues>
            -5.7133710384368896e-01 2.2492761909961700e-01</leafValues></_>
        <_>
          <internalNodes>
            0 -1 84 -1.1966230813413858e-03</internalNodes>
          <leafValues>
            2.6626956462860107e-01 -4.6835061907768250e-01</leafValues></_>
        <_>
          <internalNodes>
            0 -1 102 -6.1295006889849901e-04</internalNodes>
          <leafValues>
            3.3263483643531799e-01 -3.5350918769836426e-01</leafValues></_>
        <_>
          <internalNodes>
            0 -1 13 6.1433147639036179e-02</internalNodes>
          <leafValues>
            1.4265739917755127e-01 -8.3693200349807739e-01</leafValues></_></weakClassifiers></_>
    <!-- stage 18 -->
    <_>
      <maxWeakCount>11</maxWeakCount>
      <stageThreshold>-1.5408703088760376e+00</stageThreshold>
      <weakClassifiers>
        <_>
          <internalNodes>
            0 -1 99 -5.0970958545804024e-03</internalNodes>
          <leafValues>
            -4.1095890104770660e-02 -8.0149811506271362e-01</leafValues></_>
        <_>
          <internalNodes>
            0 -1 51 2.7950215153396130e-03</internalNodes>
          <leafValues>
            -6.4082455635070801e-01 3.5435095429420471e-02</leafValues></_>
        <_>
          <internalNodes>
            0 -1 17 -1.0212894529104233e-02</internalNodes>
          <leafValues>
            3.3446037769317627e-01 -3.2331797480583191e-01</leafValues></_>
        <_>
          <internalNodes>
            0 -1 137 7.0004914887249470e-03</internalNodes>
          <leafValues>
            1.1078411340713501e-01 -9.7778558731079102e-01</leafValues></_>
        <_>
          <internalNodes>
            0 -1 68 -2.8606839478015900e-03</internalNodes>
          <leafValues>
            3.1542307138442993e-01 -3.2417246699333191e-01</leafValues></_>
        <_>
          <internalNodes>
            0 -1 145 -5.4837466450408101e-05</internalNodes>
          <leafValues>
            -7.2188168764114380e-01 1.5480841696262360e-01</leafValues></_>
        <_>
          <internalNodes>
            0 -1 65 -1.0063777677714825e-02</internalNodes>
          <leafValues>
            -6.4836096763610840e-01 1.9203925132751465e-01</leafValues></_>
        <_>
          <internalNodes>
            0 -1 82 -4.8977177357301116e-04</internalNodes>
          <leafValues>
            1.4658404886722565e-01 -6.6678959131240845e-01</leafValues></_>
        <_>
          <internalNodes>
            0 -1 36 5.9258206747472286e-03</internalNodes>
          <leafValues>
            -3.8082137703895569e-01 3.4706670045852661e-01</leafValues></_>
        <_>
          <internalNodes>
            0 -1 83 -1.9675465300679207e-03</internalNodes>
          <leafValues>
            -7.7949112653732300e-01 1.2297335267066956e-01</leafValues></_>
        <_>
          <internalNodes>
            0 -1 119 1.6206251457333565e-03</internalNodes>
          <leafValues>
            -2.3659007251262665e-01 4.7298309206962585e-01</leafValues></_></weakClassifiers></_></stages>
  <features>
    <_>
      <rects>
        <_>
          0 0 1 10 -1.</_>
        <_>
          0 5 1 5 2.</_></rects>
      <tilted>0</tilted></_>
    <_>
      <rects>
        <_>
          0 0 4 1 -1.</_>
        <_>
          2 0 2 1 2.</_></rects>
      <tilted>0</tilted></_>
    <_>
      <rects>
        <_>
          0 0 6 1 -1.</_>
        <_>
          2 0 2 1 3.</_></rects>
      <tilted>0</tilted></_>
    <_>
      <rects>
        <_>
          0 4 1 3 -1.</_>
        <_>
          0 5 1 1 3.</_></rects>
      <tilted>0</tilted></_>
    <_>
      <rects>
        <_>
          0 6 24 16 -1.</_>
        <_>
          8 6 8 16 3.</_></rects>
      <tilted>0</tilted></_>
    <_>
      <rects>
        <_>
          0 7 2 3 -1.</_>
        <_>
          0 8 2 1 3.</_></rects>
      <tilted>0</tilted></_>
    <_>
      <rects>
        <_>
          0 7 24 17 -1.</_>
        <_>
          8 7 8 17 3.</_></rects>
      <tilted>0</tilted></_>
    <_>
      <rects>
        <_>
          0 10 14 4 -1.</_>
        <_>
          0 10 7 2 2.</_>
        <_>
          7 12 7 2 2.</_></rects>
      <tilted>0</tilted></_>
    <_>
      <rects>
        <_>
          0 16 24 8 -1.</_>
        <_>
          8 16 8 8 3.</_></rects>
      <tilted>0</tilted></_>
    <_>
      <rects>
        <_>
          0 20 24 1 -1.</_>
        <_>
          8 20 8 1 3.</_></rects>
      <tilted>0</tilted></_>
    <_>
      <rects>
        <_>
          0 20 16 4 -1.</_>
        <_>
          0 20 8 2 2.</_>
        <_>
          8 22 8 2 2.</_></rects>
      <tilted>0</tilted></_>
    <_>
      <rects>
        <_>
          0 21 1 2 -1.</_>
        <_>
          0 22 1 1 2.</_></rects>
      <tilted>0</tilted></_>
    <_>
      <rects>
        <_>
          0 22 1 2 -1.</_>
        <_>
          0 23 1 1 2.</_></rects>
      <tilted>0</tilted></_>
    <_>
      <rects>
        <_>
          1 3 20 10 -1.</_>
        <_>
          1 3 10 5 2.</_>
        <_>
          11 8 10 5 2.</_></rects>
      <tilted>0</tilted></_>
    <_>
      <rects>
        <_>
          2 0 3 1 -1.</_>
        <_>
          3 0 1 1 3.</_></rects>
      <tilted>0</tilted></_>
    <_>
      <rects>
        <_>
          2 0 1 4 -1.</_>
        <_>
          2 2 1 2 2.</_></rects>
      <tilted>0</tilted></_>
    <_>
      <rects>
        <_>
          2 3 21 3 -1.</_>
        <_>
          9 3 7 3 3.</_></rects>
      <tilted>0</tilted></_>
    <_>
      <rects>
        <_>
          2 4 12 2 -1.</_>
        <_>
          8 4 6 2 2.</_></rects>
      <tilted>0</tilted></_>
    <_>
      <rects>
        <_>
          2 4 22 6 -1.</_>
        <_>
          2 4 11 3 2.</_>
        <_>
          13 7 11 3 2.</_></rects>
      <tilted>0</tilted></_>
    <_>
      <rects>
        <_>
          2 5 6 6 -1.</_>
        <_>
          4 5 2 6 3.</_></rects>
      <tilted>0</tilted></_>
    <_>
      <rects>
        <_>
          2 7 8 3 -1.</_>
        <_>
          6 7 4 3 2.</_></rects>
      <tilted>0</tilted></_>
    <_>
      <rects>
        <_>
          2 21 21 1 -1.</_>
        <_>
          9 21 7 1 3.</_></rects>
      <tilted>0</tilted></_>
    <_>
      <rects>
        <_>
          3 0 2 2 -1.</_>
        <_>
          3 1 2 1 2.</_></rects>
      <tilted>0</tilted></_>
    <_>
      <rects>
        <_>
          3 0 15 2 -1.</_>
        <_>
          3 1 15 1 2.</_></rects>
      <tilted>0</tilted></_>
    <_>
      <rects>
        <_>
          3 2 10 12 -1.</_>
        <_>
          3 2 5 6 2.</_>
        <_>
          8 8 5 6 2.</_></rects>
      <tilted>0</tilted></_>
    <_>
      <rects>
        <_>
          3 3 10 6 -1.</_>
        <_>
          3 3 5 3 2.</_>
        <_>
          8 6 5 3 2.</_></rects>
      <tilted>0</tilted></_>
    <_>
      <rects>
        <_>
          3 4 16 6 -1.</_>
        <_>
          3 4 8 3 2.</_>
        <_>
          11 7 8 3 2.</_></rects>
      <tilted>0</tilted></_>
    <_>
      <rects>
        <_>
          3 10 13 2 -1.</_>
        <_>
          3 11 13 1 2.</_></rects>
      <tilted>0</tilted></_>
    <_>
      <rects>
        <_>
          3 18 12 6 -1.</_>
        <_>
          7 18 4 6 3.</_></rects>
      <tilted>0</tilted></_>
    <_>
      <rects>
        <_>
          4 0 13 6 -1.</_>
        <_>
          4 2 13 2 3.</_></rects>
      <tilted>0</tilted></_>
    <_>
      <rects>
        <_>
          4 2 8 8 -1.</_>
        <_>
          4 2 4 4 2.</_>
        <_>
          8 6 4 4 2.</_></rects>
      <tilted>0</tilted></_>
    <_>
      <rects>
        <_>
          4 3 8 6 -1.</_>
        <_>
          4 3 4 3 2.</_>
        <_>
          8 6 4 3 2.</_></rects>
      <tilted>0</tilted></_>
    <_>
      <rects>
        <_>
          4 7 6 5 -1.</_>
        <_>
          6 7 2 5 3.</_></rects>
      <tilted>0</tilted></_>
    <_>
      <rects>
        <_>
          4 8 3 3 -1.</_>
        <_>
          5 8 1 3 3.</_></rects>
      <tilted>0</tilted></_>
    <_>
      <rects>
        <_>
          4 16 8 5 -1.</_>
        <_>
          8 16 4 5 2.</_></rects>
      <tilted>0</tilted></_>
    <_>
      <rects>
        <_>
          4 20 18 2 -1.</_>
        <_>
          10 20 6 2 3.</_></rects>
      <tilted>0</tilted></_>
    <_>
      <rects>
        <_>
          4 21 10 1 -1.</_>
        <_>
          9 21 5 1 2.</_></rects>
      <tilted>0</tilted></_>
    <_>
      <rects>
        <_>
          5 0 16 4 -1.</_>
        <_>
          5 2 16 2 2.</_></rects>
      <tilted>0</tilted></_>
    <_>
      <rects>
        <_>
          5 4 15 2 -1.</_>
        <_>
          10 4 5 2 3.</_></rects>
      <tilted>0</tilted></_>
    <_>
      <rects>
        <_>
          5 18 10 4 -1.</_>
        <_>
          5 18 5 2 2.</_>
        <_>
          10 20 5 2 2.</_></rects>
      <tilted>0</tilted></_>
    <_>
      <rects>
        <_>
          6 0 9 1 -1.</_>
        <_>
          9 0 3 1 3.</_></rects>
      <tilted>0</tilted></_>
    <_>
      <rects>
        <_>
          6 4 4 6 -1.</_>
        <_>
          6 4 2 3 2.</_>
        <_>
          8 7 2 3 2.</_></rects>
      <tilted>0</tilted></_>
    <_>
      <rects>
        <_>
          6 8 6 2 -1.</_>
        <_>
          9 8 3 2 2.</_></rects>
      <tilted>0</tilted></_>
    <_>
      <rects>
        <_>
          6 10 10 6 -1.</_>
        <_>
          6 10 5 3 2.</_>
        <_>
          11 13 5 3 2.</_></rects>
      <tilted>0</tilted></_>
    <_>
      <rects>
        <_>
          6 11 12 13 -1.</_>
        <_>
          10 11 4 13 3.</_></rects>
      <tilted>0</tilted></_>
    <_>
      <rects>
        <_>
          6 20 6 2 -1.</_>
        <_>
          9 20 3 2 2.</_></rects>
      <tilted>0</tilted></_>
    <_>
      <rects>
        <_>
          7 6 4 6 -1.</_>
        <_>
          7 6 2 3 2.</_>
        <_>
          9 9 2 3 2.</_></rects>
      <tilted>0</tilted></_>
    <_>
      <rects>
        <_>
          7 8 3 3 -1.</_>
        <_>
          8 8 1 3 3.</_></rects>
      <tilted>0</tilted></_>
    <_>
      <rects>
        <_>
          7 8 3 5 -1.</_>
        <_>
          8 8 1 5 3.</_></rects>
      <tilted>0</tilted></_>
    <_>
      <rects>
        <_>
          7 9 7 9 -1.</_>
        <_>
          7 12 7 3 3.</_></rects>
      <tilted>0</tilted></_>
    <_>
      <rects>
        <_>
          7 11 10 6 -1.</_>
        <_>
          7 11 5 3 2.</_>
        <_>
          12 14 5 3 2.</_></rects>
      <tilted>0</tilted></_>
    <_>
      <rects>
        <_>
          7 11 6 3 -1.</_>
        <_>
          7 12 6 1 3.</_></rects>
      <tilted>0</tilted></_>
    <_>
      <rects>
        <_>
          7 11 9 3 -1.</_>
        <_>
          7 12 9 1 3.</_></rects>
      <tilted>0</tilted></_>
    <_>
      <rects>
        <_>
          7 19 6 5 -1.</_>
        <_>
          9 19 2 5 3.</_></rects>
      <tilted>0</tilted></_>
    <_>
      <rects>
        <_>
          7 20 6 2 -1.</_>
        <_>
          9 20 2 2 3.</_></rects>
      <tilted>0</tilted></_>
    <_>
      <rects>
        <_>
          8 5 8 6 -1.</_>
        <_>
          8 7 8 2 3.</_></rects>
      <tilted>0</tilted></_>
    <_>
      <rects>
        <_>
          8 9 5 9 -1.</_>
        <_>
          8 12 5 3 3.</_></rects>
      <tilted>0</tilted></_>
    <_>
      <rects>
        <_>
          8 10 2 4 -1.</_>
        <_>
          8 10 1 2 2.</_>
        <_>
          9 12 1 2 2.</_></rects>
      <tilted>0</tilted></_>
    <_>
      <rects>
        <_>
          8 12 1 2 -1.</_>
        <_>
          8 13 1 1 2.</_></rects>
      <tilted>0</tilted></_>
    <_>
      <rects>
        <_>
          8 13 8 2 -1.</_>
        <_>
          8 13 4 1 2.</_>
        <_>
          12 14 4 1 2.</_></rects>
      <tilted>0</tilted></_>
    <_>
      <rects>
        <_>
          8 13 9 4 -1.</_>
        <_>
          8 15 9 2 2.</_></rects>
      <tilted>0</tilted></_>
    <_>
      <rects>
        <_>
          8 15 2 4 -1.</_>
        <_>
          8 15 1 2 2.</_>
        <_>
          9 17 1 2 2.</_></rects>
      <tilted>0</tilted></_>
    <_>
      <rects>
        <_>
          8 15 4 2 -1.</_>
        <_>
          8 15 2 1 2.</_>
        <_>
          10 16 2 1 2.</_></rects>
      <tilted>0</tilted></_>
    <_>
      <rects>
        <_>
          9 2 6 6 -1.</_>
        <_>
          9 4 6 2 3.</_></rects>
      <tilted>0</tilted></_>
    <_>
      <rects>
        <_>
          9 4 3 6 -1.</_>
        <_>
          10 4 1 6 3.</_></rects>
      <tilted>0</tilted></_>
    <_>
      <rects>
        <_>
          9 6 6 8 -1.</_>
        <_>
          9 6 3 4 2.</_>
        <_>
          12 10 3 4 2.</_></rects>
      <tilted>0</tilted></_>
    <_>
      <rects>
        <_>
          9 7 3 2 -1.</_>
        <_>
          10 7 1 2 3.</_></rects>
      <tilted>0</tilted></_>
    <_>
      <rects>
        <_>
          9 7 6 4 -1.</_>
        <_>
          11 7 2 4 3.</_></rects>
      <tilted>0</tilted></_>
    <_>
      <rects>
        <_>
          9 9 4 6 -1.</_>
        <_>
          9 9 2 3 2.</_>
        <_>
          11 12 2 3 2.</_></rects>
      <tilted>0</tilted></_>
    <_>
      <rects>
        <_>
          9 9 12 2 -1.</_>
        <_>
          9 10 12 1 2.</_></rects>
      <tilted>0</tilted></_>
    <_>
      <rects>
        <_>
          9 10 6 1 -1.</_>
        <_>
          11 10 2 1 3.</_></rects>
      <tilted>0</tilted></_>
    <_>
      <rects>
        <_>
          9 10 4 8 -1.</_>
        <_>
          9 14 4 4 2.</_></rects>
      <tilted>0</tilted></_>
    <_>
      <rects>
        <_>
          9 11 7 6 -1.</_>
        <_>
          9 14 7 3 2.</_></rects>
      <tilted>0</tilted></_>
    <_>
      <rects>
        <_>
          9 13 4 6 -1.</_>
        <_>
          9 13 2 3 2.</_>
        <_>
          11 16 2 3 2.</_></rects>
      <tilted>0</tilted></_>
    <_>
      <rects>
        <_>
          9 16 1 2 -1.</_>
        <_>
          9 17 1 1 2.</_></rects>
      <tilted>0</tilted></_>
    <_>
      <rects>
        <_>
          9 17 2 2 -1.</_>
        <_>
          9 17 1 1 2.</_>
        <_>
          10 18 1 1 2.</_></rects>
      <tilted>0</tilted></_>
    <_>
      <rects>
        <_>
          10 1 9 15 -1.</_>
        <_>
          10 6 9 5 3.</_></rects>
      <tilted>0</tilted></_>
    <_>
      <rects>
        <_>
          10 5 5 6 -1.</_>
        <_>
          10 7 5 2 3.</_></rects>
      <tilted>0</tilted></_>
    <_>
      <rects>
        <_>
          10 6 4 8 -1.</_>
        <_>
          10 10 4 4 2.</_></rects>
      <tilted>0</tilted></_>
    <_>
      <rects>
        <_>
          10 7 6 1 -1.</_>
        <_>
          12 7 2 1 3.</_></rects>
      <tilted>0</tilted></_>
    <_>
      <rects>
        <_>
          10 9 3 3 -1.</_>
        <_>
          10 10 3 1 3.</_></rects>
      <tilted>0</tilted></_>
    <_>
      <rects>
        <_>
          10 9 7 9 -1.</_>
        <_>
          10 12 7 3 3.</_></rects>
      <tilted>0</tilted></_>
    <_>
      <rects>
        <_>
          10 11 2 8 -1.</_>
        <_>
          10 15 2 4 2.</_></rects>
      <tilted>0</tilted></_>
    <_>
      <rects>
        <_>
          10 14 1 4 -1.</_>
        <_>
          10 16 1 2 2.</_></rects>
      <tilted>0</tilted></_>
    <_>
      <rects>
        <_>
          10 14 7 2 -1.</_>
        <_>
          10 15 7 1 2.</_></rects>
      <tilted>0</tilted></_>
    <_>
      <rects>
        <_>
          10 15 4 2 -1.</_>
        <_>
          10 16 4 1 2.</_></rects>
      <tilted>0</tilted></_>
    <_>
      <rects>
        <_>
          10 16 4 3 -1.</_>
        <_>
          10 17 4 1 3.</_></rects>
      <tilted>0</tilted></_>
    <_>
      <rects>
        <_>
          10 17 2 1 -1.</_>
        <_>
          11 17 1 1 2.</_></rects>
      <tilted>0</tilted></_>
    <_>
      <rects>
        <_>
          10 17 5 2 -1.</_>
        <_>
          10 18 5 1 2.</_></rects>
      <tilted>0</tilted></_>
    <_>
      <rects>
        <_>
          10 19 6 2 -1.</_>
        <_>
          10 19 3 1 2.</_>
        <_>
          13 20 3 1 2.</_></rects>
      <tilted>0</tilted></_>
    <_>
      <rects>
        <_>
          11 3 10 6 -1.</_>
        <_>
          11 3 5 3 2.</_>
        <_>
          16 6 5 3 2.</_></rects>
      <tilted>0</tilted></_>
    <_>
      <rects>
        <_>
          11 5 10 3 -1.</_>
        <_>
          11 6 10 1 3.</_></rects>
      <tilted>0</tilted></_>
    <_>
      <rects>
        <_>
          11 6 1 2 -1.</_>
        <_>
          11 7 1 1 2.</_></rects>
      <tilted>0</tilted></_>
    <_>
      <rects>
        <_>
          11 6 4 12 -1.</_>
        <_>
          11 10 4 4 3.</_></rects>
      <tilted>0</tilted></_>
    <_>
      <rects>
        <_>
          11 7 1 6 -1.</_>
        <_>
          11 10 1 3 2.</_></rects>
      <tilted>0</tilted></_>
    <_>
      <rects>
        <_>
          11 7 6 1 -1.</_>
        <_>
          13 7 2 1 3.</_></rects>
      <tilted>0</tilted></_>
    <_>
      <rects>
        <_>
          11 9 8 2 -1.</_>
        <_>
          11 9 4 1 2.</_>
        <_>
          15 10 4 1 2.</_></rects>
      <tilted>0</tilted></_>
    <_>
      <rects>
        <_>
          11 12 2 6 -1.</_>
        <_>
          11 14 2 2 3.</_></rects>
      <tilted>0</tilted></_>
    <_>
      <rects>
        <_>
          11 16 3 3 -1.</_>
        <_>
          11 17 3 1 3.</_></rects>
      <tilted>0</tilted></_>
    <_>
      <rects>
        <_>
          11 21 3 2 -1.</_>
        <_>
          12 21 1 2 3.</_></rects>
      <tilted>0</tilted></_>
    <_>
      <rects>
        <_>
          12 0 6 10 -1.</_>
        <_>
          12 0 3 5 2.</_>
        <_>
          15 5 3 5 2.</_></rects>
      <tilted>0</tilted></_>
    <_>
      <rects>
        <_>
          12 9 3 3 -1.</_>
        <_>
          13 9 1 3 3.</_></rects>
      <tilted>0</tilted></_>
    <_>
      <rects>
        <_>
          12 10 3 3 -1.</_>
        <_>
          13 10 1 3 3.</_></rects>
      <tilted>0</tilted></_>
    <_>
      <rects>
        <_>
          12 10 3 2 -1.</_>
        <_>
          12 11 3 1 2.</_></rects>
      <tilted>0</tilted></_>
    <_>
      <rects>
        <_>
          12 10 6 2 -1.</_>
        <_>
          12 11 6 1 2.</_></rects>
      <tilted>0</tilted></_>
    <_>
      <rects>
        <_>
          12 12 1 3 -1.</_>
        <_>
          12 13 1 1 3.</_></rects>
      <tilted>0</tilted></_>
    <_>
      <rects>
        <_>
          12 12 4 6 -1.</_>
        <_>
          12 15 4 3 2.</_></rects>
      <tilted>0</tilted></_>
    <_>
      <rects>
        <_>
          12 14 1 4 -1.</_>
        <_>
          12 16 1 2 2.</_></rects>
      <tilted>0</tilted></_>
    <_>
      <rects>
        <_>
          12 20 6 2 -1.</_>
        <_>
          14 20 2 2 3.</_></rects>
      <tilted>0</tilted></_>
    <_>
      <rects>
        <_>
          12 21 6 3 -1.</_>
        <_>
          14 21 2 3 3.</_></rects>
      <tilted>0</tilted></_>
    <_>
      <rects>
        <_>
          13 0 4 1 -1.</_>
        <_>
          15 0 2 1 2.</_></rects>
      <tilted>0</tilted></_>
    <_>
      <rects>
        <_>
          13 2 6 8 -1.</_>
        <_>
          13 2 3 4 2.</_>
        <_>
          16 6 3 4 2.</_></rects>
      <tilted>0</tilted></_>
    <_>
      <rects>
        <_>
          13 10 2 2 -1.</_>
        <_>
          13 11 2 1 2.</_></rects>
      <tilted>0</tilted></_>
    <_>
      <rects>
        <_>
          13 11 8 3 -1.</_>
        <_>
          13 12 8 1 3.</_></rects>
      <tilted>0</tilted></_>
    <_>
      <rects>
        <_>
          13 16 1 3 -1.</_>
        <_>
          13 17 1 1 3.</_></rects>
      <tilted>0</tilted></_>
    <_>
      <rects>
        <_>
          13 17 2 2 -1.</_>
        <_>
          13 17 1 1 2.</_>
        <_>
          14 18 1 1 2.</_></rects>
      <tilted>0</tilted></_>
    <_>
      <rects>
        <_>
          13 17 2 4 -1.</_>
        <_>
          13 17 1 2 2.</_>
        <_>
          14 19 1 2 2.</_></rects>
      <tilted>0</tilted></_>
    <_>
      <rects>
        <_>
          13 17 2 3 -1.</_>
        <_>
          13 18 2 1 3.</_></rects>
      <tilted>0</tilted></_>
    <_>
      <rects>
        <_>
          13 17 3 3 -1.</_>
        <_>
          13 18 3 1 3.</_></rects>
      <tilted>0</tilted></_>
    <_>
      <rects>
        <_>
          13 22 6 1 -1.</_>
        <_>
          16 22 3 1 2.</_></rects>
      <tilted>0</tilted></_>
    <_>
      <rects>
        <_>
          14 1 3 13 -1.</_>
        <_>
          15 1 1 13 3.</_></rects>
      <tilted>0</tilted></_>
    <_>
      <rects>
        <_>
          14 1 4 10 -1.</_>
        <_>
          14 1 2 5 2.</_>
        <_>
          16 6 2 5 2.</_></rects>
      <tilted>0</tilted></_>
    <_>
      <rects>
        <_>
          14 4 6 12 -1.</_>
        <_>
          16 4 2 12 3.</_></rects>
      <tilted>0</tilted></_>
    <_>
      <rects>
        <_>
          14 6 2 1 -1.</_>
        <_>
          15 6 1 1 2.</_></rects>
      <tilted>0</tilted></_>
    <_>
      <rects>
        <_>
          14 6 6 4 -1.</_>
        <_>
          16 6 2 4 3.</_></rects>
      <tilted>0</tilted></_>
    <_>
      <rects>
        <_>
          14 6 8 18 -1.</_>
        <_>
          14 6 4 9 2.</_>
        <_>
          18 15 4 9 2.</_></rects>
      <tilted>0</tilted></_>
    <_>
      <rects>
        <_>
          14 6 8 3 -1.</_>
        <_>
          14 7 8 1 3.</_></rects>
      <tilted>0</tilted></_>
    <_>
      <rects>
        <_>
          14 7 2 1 -1.</_>
        <_>
          15 7 1 1 2.</_></rects>
      <tilted>0</tilted></_>
    <_>
      <rects>
        <_>
          14 8 3 1 -1.</_>
        <_>
          15 8 1 1 3.</_></rects>
      <tilted>0</tilted></_>
    <_>
      <rects>
        <_>
          14 8 3 8 -1.</_>
        <_>
          15 8 1 8 3.</_></rects>
      <tilted>0</tilted></_>
    <_>
      <rects>
        <_>
          14 10 1 4 -1.</_>
        <_>
          14 12 1 2 2.</_></rects>
      <tilted>0</tilted></_>
    <_>
      <rects>
        <_>
          14 12 3 2 -1.</_>
        <_>
          15 12 1 2 3.</_></rects>
      <tilted>0</tilted></_>
    <_>
      <rects>
        <_>
          14 14 2 4 -1.</_>
        <_>
          14 16 2 2 2.</_></rects>
      <tilted>0</tilted></_>
    <_>
      <rects>
        <_>
          14 16 1 2 -1.</_>
        <_>
          14 17 1 1 2.</_></rects>
      <tilted>0</tilted></_>
    <_>
      <rects>
        <_>
          14 21 4 2 -1.</_>
        <_>
          16 21 2 2 2.</_></rects>
      <tilted>0</tilted></_>
    <_>
      <rects>
        <_>
          15 0 2 12 -1.</_>
        <_>
          15 0 1 6 2.</_>
        <_>
          16 6 1 6 2.</_></rects>
      <tilted>0</tilted></_>
    <_>
      <rects>
        <_>
          15 8 2 2 -1.</_>
        <_>
          16 8 1 2 2.</_></rects>
      <tilted>0</tilted></_>
    <_>
      <rects>
        <_>
          15 11 5 3 -1.</_>
        <_>
          15 12 5 1 3.</_></rects>
      <tilted>0</tilted></_>
    <_>
      <rects>
        <_>
          15 15 3 2 -1.</_>
        <_>
          16 15 1 2 3.</_></rects>
      <tilted>0</tilted></_>
    <_>
      <rects>
        <_>
          16 8 1 6 -1.</_>
        <_>
          16 10 1 2 3.</_></rects>
      <tilted>0</tilted></_>
    <_>
      <rects>
        <_>
          16 8 8 4 -1.</_>
        <_>
          16 10 8 2 2.</_></rects>
      <tilted>0</tilted></_>
    <_>
      <rects>
        <_>
          18 0 6 1 -1.</_>
        <_>
          21 0 3 1 2.</_></rects>
      <tilted>0</tilted></_>
    <_>
      <rects>
        <_>
          19 11 2 3 -1.</_>
        <_>
          19 12 2 1 3.</_></rects>
      <tilted>0</tilted></_>
    <_>
      <rects>
        <_>
          20 0 1 2 -1.</_>
        <_>
          20 1 1 1 2.</_></rects>
      <tilted>0</tilted></_>
    <_>
      <rects>
        <_>
          20 0 3 1 -1.</_>
        <_>
          21 0 1 1 3.</_></rects>
      <tilted>0</tilted></_>
    <_>
      <rects>
        <_>
          21 0 1 2 -1.</_>
        <_>
          21 1 1 1 2.</_></rects>
      <tilted>0</tilted></_>
    <_>
      <rects>
        <_>
          21 0 3 1 -1.</_>
        <_>
          22 0 1 1 3.</_></rects>
      <tilted>0</tilted></_>
    <_>
      <rects>
        <_>
          21 7 3 2 -1.</_>
        <_>
          21 8 3 1 2.</_></rects>
      <tilted>0</tilted></_>
    <_>
      <rects>
        <_>
          21 23 2 1 -1.</_>
        <_>
          22 23 1 1 2.</_></rects>
      <tilted>0</tilted></_>
    <_>
      <rects>
        <_>
          22 1 2 15 -1.</_>
        <_>
          23 1 1 15 2.</_></rects>
      <tilted>0</tilted></_>
    <_>
      <rects>
        <_>
          23 0 1 4 -1.</_>
        <_>
          23 2 1 2 2.</_></rects>
      <tilted>0</tilted></_>
    <_>
      <rects>
        <_>
          23 0 1 10 -1.</_>
        <_>
          23 5 1 5 2.</_></rects>
      <tilted>0</tilted></_>
    <_>
      <rects>
        <_>
          23 3 1 3 -1.</_>
        <_>
          23 4 1 1 3.</_></rects>
      <tilted>0</tilted></_>
    <_>
      <rects>
        <_>
          23 9 1 3 -1.</_>
        <_>
          23 10 1 1 3.</_></rects>
      <tilted>0</tilted></_></features></cascade>
</opencv_storage>
