<?xml version="1.0"?>
<opencv_storage>
<stage13>
  <maxWeakCount>8</maxWeakCount>
  <stageThreshold>-1.8636528253555298e+00</stageThreshold>
  <weakClassifiers>
    <_>
      <internalNodes>
        0 -1 139162 -1.9419942051172256e-02</internalNodes>
      <leafValues>
        4.5454546809196472e-01 -7.8880864381790161e-01</leafValues></_>
    <_>
      <internalNodes>
        0 -1 50223 3.0094407498836517e-02</internalNodes>
      <leafValues>
        -4.8974531888961792e-01 3.2340455055236816e-01</leafValues></_>
    <_>
      <internalNodes>
        0 -1 95640 3.2671498047420755e-05</internalNodes>
      <leafValues>
        -5.2025836706161499e-01 2.4521009624004364e-01</leafValues></_>
    <_>
      <internalNodes>
        0 -1 59296 2.0770885050296783e-02</internalNodes>
      <leafValues>
        -3.1171163916587830e-01 3.8303354382514954e-01</leafValues></_>
    <_>
      <internalNodes>
        0 -1 157602 -9.5445982879027724e-05</internalNodes>
      <leafValues>
        -6.2504929304122925e-01 2.0340153574943542e-01</leafValues></_>
    <_>
      <internalNodes>
        0 -1 146617 3.1254967325367033e-04</internalNodes>
      <leafValues>
        -4.8430612683296204e-01 2.6551994681358337e-01</leafValues></_>
    <_>
      <internalNodes>
        0 -1 136438 -2.0135801751166582e-03</internalNodes>
      <leafValues>
        -7.1380716562271118e-01 1.9210769236087799e-01</leafValues></_>
    <_>
      <internalNodes>
        0 -1 103964 -3.4141240175813437e-03</internalNodes>
      <leafValues>
        3.0975696444511414e-01 -4.1415804624557495e-01</leafValues></_></weakClassifiers></stage13>
</opencv_storage>
