<?xml version="1.0"?>
<opencv_storage>
<stage16>
  <maxWeakCount>11</maxWeakCount>
  <stageThreshold>-2.0074295997619629e+00</stageThreshold>
  <weakClassifiers>
    <_>
      <internalNodes>
        0 -1 29078 -1.3612636923789978e-01</internalNodes>
      <leafValues>
        6.1538463830947876e-01 -7.8475338220596313e-01</leafValues></_>
    <_>
      <internalNodes>
        0 -1 126866 2.2426128271035850e-04</internalNodes>
      <leafValues>
        -6.8095350265502930e-01 9.9845901131629944e-02</leafValues></_>
    <_>
      <internalNodes>
        0 -1 12087 1.1923563480377197e-01</internalNodes>
      <leafValues>
        -3.8367542624473572e-01 2.9477918148040771e-01</leafValues></_>
    <_>
      <internalNodes>
        0 -1 125424 -3.6716728936880827e-04</internalNodes>
      <leafValues>
        2.9900538921356201e-01 -3.4985804557800293e-01</leafValues></_>
    <_>
      <internalNodes>
        0 -1 117872 -8.6644678958691657e-05</internalNodes>
      <leafValues>
        2.5299459695816040e-01 -5.5408096313476563e-01</leafValues></_>
    <_>
      <internalNodes>
        0 -1 160523 -6.0436810599640012e-04</internalNodes>
      <leafValues>
        -7.0535385608673096e-01 1.6507709026336670e-01</leafValues></_>
    <_>
      <internalNodes>
        0 -1 146404 4.0104688378050923e-04</internalNodes>
      <leafValues>
        -3.6451026797294617e-01 3.0157113075256348e-01</leafValues></_>
    <_>
      <internalNodes>
        0 -1 87331 1.5828453004360199e-02</internalNodes>
      <leafValues>
        1.0166940093040466e-01 -1.</leafValues></_>
    <_>
      <internalNodes>
        0 -1 126351 -9.2074542772024870e-04</internalNodes>
      <leafValues>
        5.0164264440536499e-01 -2.6481199264526367e-01</leafValues></_>
    <_>
      <internalNodes>
        0 -1 117373 -5.4490272887051105e-03</internalNodes>
      <leafValues>
        -7.7523016929626465e-01 1.6690127551555634e-01</leafValues></_>
    <_>
      <internalNodes>
        0 -1 136790 2.6419691494083963e-05</internalNodes>
      <leafValues>
        -5.1437270641326904e-01 1.8847827613353729e-01</leafValues></_></weakClassifiers></stage16>
</opencv_storage>
