<?xml version="1.0"?>
<opencv_storage>
<stage11>
  <maxWeakCount>12</maxWeakCount>
  <stageThreshold>-2.2554442882537842e+00</stageThreshold>
  <weakClassifiers>
    <_>
      <internalNodes>
        0 -1 60188 9.8273828625679016e-02</internalNodes>
      <leafValues>
        -7.9510426521301270e-01 4.7368422150611877e-01</leafValues></_>
    <_>
      <internalNodes>
        0 -1 73856 5.5667329579591751e-03</internalNodes>
      <leafValues>
        -6.8914109468460083e-01 1.1557204276323318e-01</leafValues></_>
    <_>
      <internalNodes>
        0 -1 113417 3.3624999923631549e-04</internalNodes>
      <leafValues>
        -4.7186866402626038e-01 3.0753478407859802e-01</leafValues></_>
    <_>
      <internalNodes>
        0 -1 157601 -5.5850243370514363e-05</internalNodes>
      <leafValues>
        -6.8879377841949463e-01 1.7967583239078522e-01</leafValues></_>
    <_>
      <internalNodes>
        0 -1 25806 2.9400677885860205e-04</internalNodes>
      <leafValues>
        1.7984139919281006e-01 -7.2118479013442993e-01</leafValues></_>
    <_>
      <internalNodes>
        0 -1 113635 4.7637484967708588e-03</internalNodes>
      <leafValues>
        -3.2388454675674438e-01 3.9569997787475586e-01</leafValues></_>
    <_>
      <internalNodes>
        0 -1 13297 5.1794217142742127e-05</internalNodes>
      <leafValues>
        2.0906566083431244e-01 -5.9494686126708984e-01</leafValues></_>
    <_>
      <internalNodes>
        0 -1 137859 2.4218214093707502e-05</internalNodes>
      <leafValues>
        -5.2192234992980957e-01 2.2258692979812622e-01</leafValues></_>
    <_>
      <internalNodes>
        0 -1 13099 -1.7495580250397325e-03</internalNodes>
      <leafValues>
        3.5286331176757813e-01 -3.6942940950393677e-01</leafValues></_>
    <_>
      <internalNodes>
        0 -1 32035 -2.0529329776763916e-02</internalNodes>
      <leafValues>
        7.2894376516342163e-01 -1.9700403511524200e-01</leafValues></_>
    <_>
      <internalNodes>
        0 -1 136143 -1.0053039659396745e-05</internalNodes>
      <leafValues>
        3.0529847741127014e-01 -4.6181985735893250e-01</leafValues></_>
    <_>
      <internalNodes>
        0 -1 9093 8.3673250628635287e-04</internalNodes>
      <leafValues>
        -5.1014405488967896e-01 2.6163762807846069e-01</leafValues></_></weakClassifiers></stage11>
</opencv_storage>
