<?xml version="1.0"?>
<opencv_storage>
<stage10>
  <maxWeakCount>8</maxWeakCount>
  <stageThreshold>-1.7669532299041748e+00</stageThreshold>
  <weakClassifiers>
    <_>
      <internalNodes>
        0 -1 127864 1.9696988165378571e-02</internalNodes>
      <leafValues>
        -8.0456620454788208e-01 4.7826087474822998e-01</leafValues></_>
    <_>
      <internalNodes>
        0 -1 38788 1.8833514302968979e-02</internalNodes>
      <leafValues>
        -4.3701103329658508e-01 6.7744404077529907e-01</leafValues></_>
    <_>
      <internalNodes>
        0 -1 96423 -1.2790689652319998e-04</internalNodes>
      <leafValues>
        3.3194044232368469e-01 -4.7107538580894470e-01</leafValues></_>
    <_>
      <internalNodes>
        0 -1 80 -1.1292335693724453e-04</internalNodes>
      <leafValues>
        -6.0687333345413208e-01 2.4612399935722351e-01</leafValues></_>
    <_>
      <internalNodes>
        0 -1 137367 5.0007743993774056e-04</internalNodes>
      <leafValues>
        -4.8875203728675842e-01 3.0868726968765259e-01</leafValues></_>
    <_>
      <internalNodes>
        0 -1 13177 7.4703777499962598e-05</internalNodes>
      <leafValues>
        2.1369308233261108e-01 -6.5532672405242920e-01</leafValues></_>
    <_>
      <internalNodes>
        0 -1 136220 -1.5058778226375580e-02</internalNodes>
      <leafValues>
        4.4162037968635559e-01 -3.0859577655792236e-01</leafValues></_>
    <_>
      <internalNodes>
        0 -1 107911 4.7572761774063110e-02</internalNodes>
      <leafValues>
        -4.4087952375411987e-01 3.5481062531471252e-01</leafValues></_></weakClassifiers></stage10>
</opencv_storage>
