<?xml version="1.0"?>
<opencv_storage>
<stage12>
  <maxWeakCount>10</maxWeakCount>
  <stageThreshold>-1.9366962909698486e+00</stageThreshold>
  <weakClassifiers>
    <_>
      <internalNodes>
        0 -1 89457 5.6521631777286530e-02</internalNodes>
      <leafValues>
        -7.8597122430801392e-01 5.1724135875701904e-01</leafValues></_>
    <_>
      <internalNodes>
        0 -1 125965 1.3429084792733192e-03</internalNodes>
      <leafValues>
        -7.1442461013793945e-01 5.6205492466688156e-02</leafValues></_>
    <_>
      <internalNodes>
        0 -1 139265 -7.1268351748585701e-03</internalNodes>
      <leafValues>
        3.6237612366676331e-01 -3.6150255799293518e-01</leafValues></_>
    <_>
      <internalNodes>
        0 -1 4083 -5.4825365077704191e-04</internalNodes>
      <leafValues>
        -8.1191867589950562e-01 1.4574070274829865e-01</leafValues></_>
    <_>
      <internalNodes>
        0 -1 4083 6.2489119591191411e-04</internalNodes>
      <leafValues>
        1.8619060516357422e-01 -7.8818041086196899e-01</leafValues></_>
    <_>
      <internalNodes>
        0 -1 133310 -5.7902012486010790e-04</internalNodes>
      <leafValues>
        2.1401517093181610e-01 -5.2539312839508057e-01</leafValues></_>
    <_>
      <internalNodes>
        0 -1 117630 1.2602709233760834e-02</internalNodes>
      <leafValues>
        2.2616338729858398e-01 -5.6411582231521606e-01</leafValues></_>
    <_>
      <internalNodes>
        0 -1 104166 2.0651626400649548e-03</internalNodes>
      <leafValues>
        1.6596315801143646e-01 -6.5453809499740601e-01</leafValues></_>
    <_>
      <internalNodes>
        0 -1 85788 -1.1807659029727802e-04</internalNodes>
      <leafValues>
        -6.3481914997100830e-01 1.7990969121456146e-01</leafValues></_>
    <_>
      <internalNodes>
        0 -1 114113 -1.2481691082939506e-03</internalNodes>
      <leafValues>
        4.1222736239433289e-01 -3.2062023878097534e-01</leafValues></_></weakClassifiers></stage12>
</opencv_storage>
