<?xml version="1.0"?>
<opencv_storage>
<stage15>
  <maxWeakCount>9</maxWeakCount>
  <stageThreshold>-1.7073750495910645e+00</stageThreshold>
  <weakClassifiers>
    <_>
      <internalNodes>
        0 -1 136355 -5.5254444479942322e-02</internalNodes>
      <leafValues>
        -1.4285714924335480e-01 -8.0571430921554565e-01</leafValues></_>
    <_>
      <internalNodes>
        0 -1 45982 3.3950544893741608e-03</internalNodes>
      <leafValues>
        -6.3965332508087158e-01 8.3528704941272736e-02</leafValues></_>
    <_>
      <internalNodes>
        0 -1 76383 4.1687637567520142e-03</internalNodes>
      <leafValues>
        -5.1428818702697754e-01 2.2291389107704163e-01</leafValues></_>
    <_>
      <internalNodes>
        0 -1 133267 5.2416615653783083e-04</internalNodes>
      <leafValues>
        -3.3118739724159241e-01 3.4594464302062988e-01</leafValues></_>
    <_>
      <internalNodes>
        0 -1 21 -2.5580742658348754e-05</internalNodes>
      <leafValues>
        -4.8345619440078735e-01 2.5505450367927551e-01</leafValues></_>
    <_>
      <internalNodes>
        0 -1 105882 -3.5218312405049801e-05</internalNodes>
      <leafValues>
        2.5567129254341125e-01 -4.3588492274284363e-01</leafValues></_>
    <_>
      <internalNodes>
        0 -1 55552 -4.5163542381487787e-05</internalNodes>
      <leafValues>
        -4.8589333891868591e-01 2.5923338532447815e-01</leafValues></_>
    <_>
      <internalNodes>
        0 -1 102712 -7.4685981962829828e-04</internalNodes>
      <leafValues>
        -7.5074797868728638e-01 1.4798995852470398e-01</leafValues></_>
    <_>
      <internalNodes>
        0 -1 143360 -1.3033628929406404e-03</internalNodes>
      <leafValues>
        3.7110212445259094e-01 -3.1915235519409180e-01</leafValues></_></weakClassifiers></stage15>
</opencv_storage>
