<?xml version="1.0"?>
<opencv_storage>
<stage1>
  <maxWeakCount>7</maxWeakCount>
  <stageThreshold>-1.6637312173843384e+00</stageThreshold>
  <weakClassifiers>
    <_>
      <internalNodes>
        0 -1 40959 3.3353373408317566e-02</internalNodes>
      <leafValues>
        -9.0615832805633545e-01 5.7627117633819580e-01</leafValues></_>
    <_>
      <internalNodes>
        0 -1 134307 -1.3071298599243164e-02</internalNodes>
      <leafValues>
        4.7626653313636780e-01 -7.4894714355468750e-01</leafValues></_>
    <_>
      <internalNodes>
        0 -1 117433 1.0053039659396745e-05</internalNodes>
      <leafValues>
        -8.0830556154251099e-01 1.9703185558319092e-01</leafValues></_>
    <_>
      <internalNodes>
        0 -1 161303 1.9720260752364993e-04</internalNodes>
      <leafValues>
        2.4895215034484863e-01 -7.5134426355361938e-01</leafValues></_>
    <_>
      <internalNodes>
        0 -1 77960 6.9311201572418213e-02</internalNodes>
      <leafValues>
        -3.2518863677978516e-01 7.1282428503036499e-01</leafValues></_>
    <_>
      <internalNodes>
        0 -1 38061 -2.3206596961244941e-04</internalNodes>
      <leafValues>
        -8.8729840517044067e-01 2.8308114409446716e-01</leafValues></_>
    <_>
      <internalNodes>
        0 -1 70143 8.0710174515843391e-03</internalNodes>
      <leafValues>
        -3.7984657287597656e-01 5.9283518791198730e-01</leafValues></_></weakClassifiers></stage1>
</opencv_storage>
