<?xml version="1.0"?>
<opencv_storage>
<stage4>
  <maxWeakCount>7</maxWeakCount>
  <stageThreshold>-2.0523397922515869e+00</stageThreshold>
  <weakClassifiers>
    <_>
      <internalNodes>
        0 -1 37840 4.3257981538772583e-02</internalNodes>
      <leafValues>
        -8.3783781528472900e-01 5.8823531866073608e-01</leafValues></_>
    <_>
      <internalNodes>
        0 -1 93512 2.7023397386074066e-02</internalNodes>
      <leafValues>
        -7.7182447910308838e-01 3.0932790040969849e-01</leafValues></_>
    <_>
      <internalNodes>
        0 -1 135541 -2.5581382215023041e-02</internalNodes>
      <leafValues>
        4.9805155396461487e-01 -4.4441565871238708e-01</leafValues></_>
    <_>
      <internalNodes>
        0 -1 162108 -1.9921486091334373e-04</internalNodes>
      <leafValues>
        -6.2720268964767456e-01 2.9917860031127930e-01</leafValues></_>
    <_>
      <internalNodes>
        0 -1 111527 -2.1250727586448193e-03</internalNodes>
      <leafValues>
        4.5596247911453247e-01 -4.3339326977729797e-01</leafValues></_>
    <_>
      <internalNodes>
        0 -1 119642 -7.8188802581280470e-04</internalNodes>
      <leafValues>
        3.2242485880851746e-01 -5.4394859075546265e-01</leafValues></_>
    <_>
      <internalNodes>
        0 -1 48814 -4.8002675175666809e-02</internalNodes>
      <leafValues>
        6.7990148067474365e-01 -2.9530295729637146e-01</leafValues></_></weakClassifiers></stage4>
</opencv_storage>
